<?xml version="1.0"?>
<opencv_storage>
<cascade>
  <stageType>BOOST</stageType>
  <featureType>HAAR</featureType>
  <height>20</height>
  <width>20</width>
  <stageParams>
    <boostType>GAB</boostType>
    <minHitRate>9.9500000476837158e-01</minHitRate>
    <maxFalseAlarm>5.0000000000000000e-01</maxFalseAlarm>
    <weightTrimRate>9.4999999999999996e-01</weightTrimRate>
    <maxDepth>1</maxDepth>
    <maxWeakCount>100</maxWeakCount></stageParams>
  <featureParams>
    <maxCatCount>0</maxCatCount>
    <featSize>1</featSize>
    <mode>BASIC</mode></featureParams>
  <stageNum>5</stageNum>
  <stages>
    <!-- stage 0 -->
    <_>
      <maxWeakCount>3</maxWeakCount>
      <stageThreshold>-1.1688727140426636e+00</stageThreshold>
      <weakClassifiers>
        <_>
          <internalNodes>
            0 -1 10 3.0033648014068604e-01</internalNodes>
          <leafValues>
            -9.7139590978622437e-01 8.3823531866073608e-01</leafValues></_>
        <_>
          <internalNodes>
            0 -1 0 1.5255510807037354e-01</internalNodes>
          <leafValues>
            -9.0906739234924316e-01 7.3350113630294800e-01</leafValues></_>
        <_>
          <internalNodes>
            0 -1 8 -1.8861295282840729e-01</internalNodes>
          <leafValues>
            7.1159064769744873e-01 -9.3002802133560181e-01</leafValues></_></weakClassifiers></_>
    <!-- stage 1 -->
    <_>
      <maxWeakCount>3</maxWeakCount>
      <stageThreshold>-1.3331035375595093e+00</stageThreshold>
      <weakClassifiers>
        <_>
          <internalNodes>
            0 -1 12 -3.6631636321544647e-02</internalNodes>
          <leafValues>
            6.0546875000000000e-01 -9.0692126750946045e-01</leafValues></_>
        <_>
          <internalNodes>
            0 -1 6 1.1137363314628601e-01</internalNodes>
          <leafValues>
            -8.8786798715591431e-01 5.0039672851562500e-01</leafValues></_>
        <_>
          <internalNodes>
            0 -1 9 -2.3830037564039230e-02</internalNodes>
          <leafValues>
            5.4509776830673218e-01 -9.2657893896102905e-01</leafValues></_></weakClassifiers></_>
    <!-- stage 2 -->
    <_>
      <maxWeakCount>2</maxWeakCount>
      <stageThreshold>-4.6705222129821777e-01</stageThreshold>
      <weakClassifiers>
        <_>
          <internalNodes>
            0 -1 2 6.8348288536071777e-02</internalNodes>
          <leafValues>
            -8.8057899475097656e-01 5.3742802143096924e-01</leafValues></_>
        <_>
          <internalNodes>
            0 -1 3 1.8580572213977575e-03</internalNodes>
          <leafValues>
            -9.6373087167739868e-01 4.1352677345275879e-01</leafValues></_></weakClassifiers></_>
    <!-- stage 3 -->
    <_>
      <maxWeakCount>2</maxWeakCount>
      <stageThreshold>-5.6587302684783936e-01</stageThreshold>
      <weakClassifiers>
        <_>
          <internalNodes>
            0 -1 4 4.7965502738952637e-01</internalNodes>
          <leafValues>
            -8.9020073413848877e-01 6.0437375307083130e-01</leafValues></_>
        <_>
          <internalNodes>
            0 -1 11 -6.9233856629580259e-04</internalNodes>
          <leafValues>
            3.2432767748832703e-01 -9.4489282369613647e-01</leafValues></_></weakClassifiers></_>
    <!-- stage 4 -->
    <_>
      <maxWeakCount>4</maxWeakCount>
      <stageThreshold>-8.9878576993942261e-01</stageThreshold>
      <weakClassifiers>
        <_>
          <internalNodes>
            0 -1 7 1.1978107690811157e-01</internalNodes>
          <leafValues>
            -7.6314336061477661e-01 5.3639417886734009e-01</leafValues></_>
        <_>
          <internalNodes>
            0 -1 13 -3.0008699744939804e-02</internalNodes>
          <leafValues>
            3.9518082141876221e-01 -8.7090933322906494e-01</leafValues></_>
        <_>
          <internalNodes>
            0 -1 1 2.0889061689376831e-01</internalNodes>
          <leafValues>
            -8.8821649551391602e-01 3.7017124891281128e-01</leafValues></_>
        <_>
          <internalNodes>
            0 -1 5 -9.1393955517560244e-04</internalNodes>
          <leafValues>
            3.6509564518928528e-01 -9.9265587329864502e-01</leafValues></_></weakClassifiers></_></stages>
  <features>
    <_>
      <rects>
        <_>
          0 4 12 8 -1.</_>
        <_>
          6 4 6 8 2.</_></rects>
      <tilted>0</tilted></_>
    <_>
      <rects>
        <_>
          2 1 18 11 -1.</_>
        <_>
          8 1 6 11 3.</_></rects>
      <tilted>0</tilted></_>
    <_>
      <rects>
        <_>
          2 3 18 2 -1.</_>
        <_>
          8 3 6 2 3.</_></rects>
      <tilted>0</tilted></_>
    <_>
      <rects>
        <_>
          3 7 2 3 -1.</_>
        <_>
          4 7 1 3 2.</_></rects>
      <tilted>0</tilted></_>
    <_>
      <rects>
        <_>
          4 0 15 18 -1.</_>
        <_>
          4 6 15 6 3.</_></rects>
      <tilted>0</tilted></_>
    <_>
      <rects>
        <_>
          4 10 3 2 -1.</_>
        <_>
          4 11 3 1 2.</_></rects>
      <tilted>0</tilted></_>
    <_>
      <rects>
        <_>
          5 0 10 12 -1.</_>
        <_>
          5 4 10 4 3.</_></rects>
      <tilted>0</tilted></_>
    <_>
      <rects>
        <_>
          5 0 11 6 -1.</_>
        <_>
          5 3 11 3 2.</_></rects>
      <tilted>0</tilted></_>
    <_>
      <rects>
        <_>
          5 8 13 10 -1.</_>
        <_>
          5 13 13 5 2.</_></rects>
      <tilted>0</tilted></_>
    <_>
      <rects>
        <_>
          7 13 8 4 -1.</_>
        <_>
          7 15 8 2 2.</_></rects>
      <tilted>0</tilted></_>
    <_>
      <rects>
        <_>
          8 0 10 18 -1.</_>
        <_>
          8 6 10 6 3.</_></rects>
      <tilted>0</tilted></_>
    <_>
      <rects>
        <_>
          13 14 1 2 -1.</_>
        <_>
          13 15 1 1 2.</_></rects>
      <tilted>0</tilted></_>
    <_>
      <rects>
        <_>
          14 3 6 6 -1.</_>
        <_>
          17 3 3 6 2.</_></rects>
      <tilted>0</tilted></_>
    <_>
      <rects>
        <_>
          15 8 2 10 -1.</_>
        <_>
          15 13 2 5 2.</_></rects>
      <tilted>0</tilted></_></features></cascade>
</opencv_storage>
